<?xml version="1.0"?>
<opencv_storage>
<cascade>
  <stageType>BOOST</stageType>
  <featureType>HAAR</featureType>
  <height>48</height>
  <width>48</width>
  <stageParams>
    <boostType>GAB</boostType>
    <minHitRate>9.9500000476837158e-01</minHitRate>
    <maxFalseAlarm>5.0000000000000000e-01</maxFalseAlarm>
    <weightTrimRate>9.4999999999999996e-01</weightTrimRate>
    <maxDepth>1</maxDepth>
    <maxWeakCount>100</maxWeakCount></stageParams>
  <featureParams>
    <maxCatCount>0</maxCatCount>
    <featSize>1</featSize>
    <mode>BASIC</mode></featureParams>
  <stageNum>18</stageNum>
  <stages>
    <!-- stage 0 -->
    <_>
      <maxWeakCount>2</maxWeakCount>
      <stageThreshold>-2.2469998896121979e-01</stageThreshold>
      <weakClassifiers>
        <_>
          <internalNodes>
            0 -1 17 1.1796686798334122e-02</internalNodes>
          <leafValues>
            -9.5294117927551270e-01 8.9999997615814209e-01</leafValues></_>
        <_>
          <internalNodes>
            0 -1 8 -3.8224412128329277e-03</internalNodes>
          <leafValues>
            7.2824120521545410e-01 -9.7986006736755371e-01</leafValues></_></weakClassifiers></_>
    <!-- stage 1 -->
    <_>
      <maxWeakCount>2</maxWeakCount>
      <stageThreshold>2.1472387015819550e-02</stageThreshold>
      <weakClassifiers>
        <_>
          <internalNodes>
            0 -1 19 -1.8510075286030769e-02</internalNodes>
          <leafValues>
            8.7596899271011353e-01 -7.0833331346511841e-01</leafValues></_>
        <_>
          <internalNodes>
            0 -1 3 2.2558718919754028e-03</internalNodes>
          <leafValues>
            -1. 7.2980570793151855e-01</leafValues></_></weakClassifiers></_>
    <!-- stage 2 -->
    <_>
      <maxWeakCount>2</maxWeakCount>
      <stageThreshold>-1.1833139508962631e-01</stageThreshold>
      <weakClassifiers>
        <_>
          <internalNodes>
            0 -1 18 -1.4002442359924316e-02</internalNodes>
          <leafValues>
            7.9710143804550171e-01 -7.4712646007537842e-01</leafValues></_>
        <_>
          <internalNodes>
            0 -1 20 -3.9415963692590594e-04</internalNodes>
          <leafValues>
            6.2879502773284912e-01 -1.</leafValues></_></weakClassifiers></_>
    <!-- stage 3 -->
    <_>
      <maxWeakCount>1</maxWeakCount>
      <stageThreshold>6.6666668653488159e-01</stageThreshold>
      <weakClassifiers>
        <_>
          <internalNodes>
            0 -1 28 3.0486708055832423e-06</internalNodes>
          <leafValues>
            -1. 6.6666668653488159e-01</leafValues></_></weakClassifiers></_>
    <!-- stage 4 -->
    <_>
      <maxWeakCount>1</maxWeakCount>
      <stageThreshold>7.6470589637756348e-01</stageThreshold>
      <weakClassifiers>
        <_>
          <internalNodes>
            0 -1 26 1.9899648032151163e-04</internalNodes>
          <leafValues>
            7.6470589637756348e-01 -1.</leafValues></_></weakClassifiers></_>
    <!-- stage 5 -->
    <_>
      <maxWeakCount>3</maxWeakCount>
      <stageThreshold>4.2099732160568237e-01</stageThreshold>
      <weakClassifiers>
        <_>
          <internalNodes>
            0 -1 0 2.1966725587844849e-02</internalNodes>
          <leafValues>
            -6.3265305757522583e-01 8.4251970052719116e-01</leafValues></_>
        <_>
          <internalNodes>
            0 -1 13 -4.1225134737032931e-06</internalNodes>
          <leafValues>
            6.2383121252059937e-01 -9.2869955301284790e-01</leafValues></_>
        <_>
          <internalNodes>
            0 -1 29 -1.4071329496800900e-04</internalNodes>
          <leafValues>
            -9.4192016124725342e-01 5.0717717409133911e-01</leafValues></_></weakClassifiers></_>
    <!-- stage 6 -->
    <_>
      <maxWeakCount>1</maxWeakCount>
      <stageThreshold>6.4634144306182861e-01</stageThreshold>
      <weakClassifiers>
        <_>
          <internalNodes>
            0 -1 9 -4.7475937753915787e-04</internalNodes>
          <leafValues>
            6.4634144306182861e-01 -1.</leafValues></_></weakClassifiers></_>
    <!-- stage 7 -->
    <_>
      <maxWeakCount>3</maxWeakCount>
      <stageThreshold>2.3633021116256714e-01</stageThreshold>
      <weakClassifiers>
        <_>
          <internalNodes>
            0 -1 25 1.7516733350930735e-05</internalNodes>
          <leafValues>
            -9.6666663885116577e-01 6.2424242496490479e-01</leafValues></_>
        <_>
          <internalNodes>
            0 -1 22 -4.5518990373238921e-04</internalNodes>
          <leafValues>
            7.2147387266159058e-01 -6.3033419847488403e-01</leafValues></_>
        <_>
          <internalNodes>
            0 -1 21 -1.0218507668469101e-04</internalNodes>
          <leafValues>
            -9.7213315963745117e-01 4.8152300715446472e-01</leafValues></_></weakClassifiers></_>
    <!-- stage 8 -->
    <_>
      <maxWeakCount>3</maxWeakCount>
      <stageThreshold>1.4505144953727722e-01</stageThreshold>
      <weakClassifiers>
        <_>
          <internalNodes>
            0 -1 33 2.0403873350005597e-05</internalNodes>
          <leafValues>
            -9.6363633871078491e-01 5.7647061347961426e-01</leafValues></_>
        <_>
          <internalNodes>
            0 -1 10 8.7699852883815765e-04</internalNodes>
          <leafValues>
            -7.1033191680908203e-01 6.3009166717529297e-01</leafValues></_>
        <_>
          <internalNodes>
            0 -1 37 7.1065325755625963e-05</internalNodes>
          <leafValues>
            4.7859612107276917e-01 -9.3129986524581909e-01</leafValues></_></weakClassifiers></_>
    <!-- stage 9 -->
    <_>
      <maxWeakCount>4</maxWeakCount>
      <stageThreshold>-4.5102003216743469e-01</stageThreshold>
      <weakClassifiers>
        <_>
          <internalNodes>
            0 -1 6 1.3730838894844055e-02</internalNodes>
          <leafValues>
            -5.6521737575531006e-01 7.2932332754135132e-01</leafValues></_>
        <_>
          <internalNodes>
            0 -1 16 -5.1991220971103758e-05</internalNodes>
          <leafValues>
            4.6536800265312195e-01 -9.7895222902297974e-01</leafValues></_>
        <_>
          <internalNodes>
            0 -1 15 -1.2640116619877517e-04</internalNodes>
          <leafValues>
            -9.3443322181701660e-01 3.3891293406486511e-01</leafValues></_>
        <_>
          <internalNodes>
            0 -1 7 1.7680785385891795e-03</internalNodes>
          <leafValues>
            -6.6270059347152710e-01 5.8326256275177002e-01</leafValues></_></weakClassifiers></_>
    <!-- stage 10 -->
    <_>
      <maxWeakCount>1</maxWeakCount>
      <stageThreshold>5.8823531866073608e-01</stageThreshold>
      <weakClassifiers>
        <_>
          <internalNodes>
            0 -1 14 5.3878044127486646e-05</internalNodes>
          <leafValues>
            -1. 5.8823531866073608e-01</leafValues></_></weakClassifiers></_>
    <!-- stage 11 -->
    <_>
      <maxWeakCount>4</maxWeakCount>
      <stageThreshold>-2.2918953001499176e-01</stageThreshold>
      <weakClassifiers>
        <_>
          <internalNodes>
            0 -1 23 1.9060400518355891e-05</internalNodes>
          <leafValues>
            5.7142859697341919e-01 -8.9473682641983032e-01</leafValues></_>
        <_>
          <internalNodes>
            0 -1 40 6.4109824597835541e-03</internalNodes>
          <leafValues>
            -5.7816994190216064e-01 6.9438320398330688e-01</leafValues></_>
        <_>
          <internalNodes>
            0 -1 2 1.7767972312867641e-03</internalNodes>
          <leafValues>
            4.9028414487838745e-01 -9.7330296039581299e-01</leafValues></_>
        <_>
          <internalNodes>
            0 -1 36 1.0897505562752485e-03</internalNodes>
          <leafValues>
            7.5343310832977295e-01 -5.6694549322128296e-01</leafValues></_></weakClassifiers></_>
    <!-- stage 12 -->
    <_>
      <maxWeakCount>2</maxWeakCount>
      <stageThreshold>1.0600573569536209e-01</stageThreshold>
      <weakClassifiers>
        <_>
          <internalNodes>
            0 -1 32 -3.3118612918769941e-05</internalNodes>
          <leafValues>
            -6.6233766078948975e-01 6.4864861965179443e-01</leafValues></_>
        <_>
          <internalNodes>
            0 -1 5 3.2961741089820862e-03</internalNodes>
          <leafValues>
            -5.4264289140701294e-01 8.1152302026748657e-01</leafValues></_></weakClassifiers></_>
    <!-- stage 13 -->
    <_>
      <maxWeakCount>2</maxWeakCount>
      <stageThreshold>-1.3012339174747467e-01</stageThreshold>
      <weakClassifiers>
        <_>
          <internalNodes>
            0 -1 30 -2.3964172578416765e-04</internalNodes>
          <leafValues>
            -8.3870965242385864e-01 5.9509199857711792e-01</leafValues></_>
        <_>
          <internalNodes>
            0 -1 41 -2.4581705220043659e-03</internalNodes>
          <leafValues>
            7.0858627557754517e-01 -5.5788511037826538e-01</leafValues></_></weakClassifiers></_>
    <!-- stage 14 -->
    <_>
      <maxWeakCount>1</maxWeakCount>
      <stageThreshold>5.1685392856597900e-01</stageThreshold>
      <weakClassifiers>
        <_>
          <internalNodes>
            0 -1 12 4.8946688184514642e-04</internalNodes>
          <leafValues>
            -1. 5.1685392856597900e-01</leafValues></_></weakClassifiers></_>
    <!-- stage 15 -->
    <_>
      <maxWeakCount>3</maxWeakCount>
      <stageThreshold>3.6305373907089233e-01</stageThreshold>
      <weakClassifiers>
        <_>
          <internalNodes>
            0 -1 31 -2.4831942282617092e-03</internalNodes>
          <leafValues>
            -9.2452830076217651e-01 5.4651165008544922e-01</leafValues></_>
        <_>
          <internalNodes>
            0 -1 1 3.0355297029018402e-02</internalNodes>
          <leafValues>
            -5.0922501087188721e-01 8.1362152099609375e-01</leafValues></_>
        <_>
          <internalNodes>
            0 -1 11 -1.2204913422465324e-02</internalNodes>
          <leafValues>
            -9.4719177484512329e-01 4.7396051883697510e-01</leafValues></_></weakClassifiers></_>
    <!-- stage 16 -->
    <_>
      <maxWeakCount>3</maxWeakCount>
      <stageThreshold>-6.7962467670440674e-01</stageThreshold>
      <weakClassifiers>
        <_>
          <internalNodes>
            0 -1 38 -4.3648807331919670e-03</internalNodes>
          <leafValues>
            -6.6233766078948975e-01 6.4864861965179443e-01</leafValues></_>
        <_>
          <internalNodes>
            0 -1 34 1.0794680565595627e-03</internalNodes>
          <leafValues>
            -5.7207334041595459e-01 8.4603697061538696e-01</leafValues></_>
        <_>
          <internalNodes>
            0 -1 27 -5.2110190154053271e-05</internalNodes>
          <leafValues>
            -8.0793118476867676e-01 5.5478638410568237e-01</leafValues></_></weakClassifiers></_>
    <!-- stage 17 -->
    <_>
      <maxWeakCount>4</maxWeakCount>
      <stageThreshold>-2.8106864541769028e-02</stageThreshold>
      <weakClassifiers>
        <_>
          <internalNodes>
            0 -1 35 1.1120881390525028e-04</internalNodes>
          <leafValues>
            7.7235770225524902e-01 -4.9019607901573181e-01</leafValues></_>
        <_>
          <internalNodes>
            0 -1 39 -7.6750537846237421e-04</internalNodes>
          <leafValues>
            -8.1708467006683350e-01 5.7037842273712158e-01</leafValues></_>
        <_>
          <internalNodes>
            0 -1 4 -6.3346140086650848e-03</internalNodes>
          <leafValues>
            7.5331127643585205e-01 -6.1027228832244873e-01</leafValues></_>
        <_>
          <internalNodes>
            0 -1 24 3.4925476938951761e-05</internalNodes>
          <leafValues>
            -7.2894513607025146e-01 6.2689238786697388e-01</leafValues></_></weakClassifiers></_></stages>
  <features>
    <_>
      <rects>
        <_>
          0 38 48 3 -1.</_>
        <_>
          16 38 16 3 3.</_></rects>
      <tilted>0</tilted></_>
    <_>
      <rects>
        <_>
          2 22 18 21 -1.</_>
        <_>
          11 22 9 21 2.</_></rects>
      <tilted>0</tilted></_>
    <_>
      <rects>
        <_>
          9 30 18 6 -1.</_>
        <_>
          9 32 18 2 3.</_></rects>
      <tilted>0</tilted></_>
    <_>
      <rects>
        <_>
          10 27 25 6 -1.</_>
        <_>
          10 30 25 3 2.</_></rects>
      <tilted>0</tilted></_>
    <_>
      <rects>
        <_>
          10 33 7 14 -1.</_>
        <_>
          10 40 7 7 2.</_></rects>
      <tilted>0</tilted></_>
    <_>
      <rects>
        <_>
          11 27 16 8 -1.</_>
        <_>
          11 27 8 4 2.</_>
        <_>
          19 31 8 4 2.</_></rects>
      <tilted>0</tilted></_>
    <_>
      <rects>
        <_>
          11 37 30 6 -1.</_>
        <_>
          21 37 10 6 3.</_></rects>
      <tilted>0</tilted></_>
    <_>
      <rects>
        <_>
          13 40 12 5 -1.</_>
        <_>
          19 40 6 5 2.</_></rects>
      <tilted>0</tilted></_>
    <_>
      <rects>
        <_>
          15 28 15 8 -1.</_>
        <_>
          20 28 5 8 3.</_></rects>
      <tilted>0</tilted></_>
    <_>
      <rects>
        <_>
          15 32 8 3 -1.</_>
        <_>
          19 32 4 3 2.</_></rects>
      <tilted>0</tilted></_>
    <_>
      <rects>
        <_>
          15 33 5 6 -1.</_>
        <_>
          15 36 5 3 2.</_></rects>
      <tilted>0</tilted></_>
    <_>
      <rects>
        <_>
          16 26 12 15 -1.</_>
        <_>
          20 26 4 15 3.</_></rects>
      <tilted>0</tilted></_>
    <_>
      <rects>
        <_>
          17 29 20 1 -1.</_>
        <_>
          27 29 10 1 2.</_></rects>
      <tilted>0</tilted></_>
    <_>
      <rects>
        <_>
          18 28 2 1 -1.</_>
        <_>
          19 28 1 1 2.</_></rects>
      <tilted>0</tilted></_>
    <_>
      <rects>
        <_>
          18 30 1 4 -1.</_>
        <_>
          18 32 1 2 2.</_></rects>
      <tilted>0</tilted></_>
    <_>
      <rects>
        <_>
          18 30 10 2 -1.</_>
        <_>
          18 30 5 1 2.</_>
        <_>
          23 31 5 1 2.</_></rects>
      <tilted>0</tilted></_>
    <_>
      <rects>
        <_>
          19 28 6 2 -1.</_>
        <_>
          21 28 2 2 3.</_></rects>
      <tilted>0</tilted></_>
    <_>
      <rects>
        <_>
          20 27 9 14 -1.</_>
        <_>
          20 34 9 7 2.</_></rects>
      <tilted>0</tilted></_>
    <_>
      <rects>
        <_>
          20 28 20 16 -1.</_>
        <_>
          20 28 10 8 2.</_>
        <_>
          30 36 10 8 2.</_></rects>
      <tilted>0</tilted></_>
    <_>
      <rects>
        <_>
          21 27 18 18 -1.</_>
        <_>
          21 27 9 9 2.</_>
        <_>
          30 36 9 9 2.</_></rects>
      <tilted>0</tilted></_>
    <_>
      <rects>
        <_>
          21 28 12 6 -1.</_>
        <_>
          25 28 4 6 3.</_></rects>
      <tilted>0</tilted></_>
    <_>
      <rects>
        <_>
          21 28 7 3 -1.</_>
        <_>
          21 29 7 1 3.</_></rects>
      <tilted>0</tilted></_>
    <_>
      <rects>
        <_>
          21 38 12 2 -1.</_>
        <_>
          21 38 6 1 2.</_>
        <_>
          27 39 6 1 2.</_></rects>
      <tilted>0</tilted></_>
    <_>
      <rects>
        <_>
          22 29 2 2 -1.</_>
        <_>
          23 29 1 2 2.</_></rects>
      <tilted>0</tilted></_>
    <_>
      <rects>
        <_>
          23 26 4 4 -1.</_>
        <_>
          23 26 2 2 2.</_>
        <_>
          25 28 2 2 2.</_></rects>
      <tilted>0</tilted></_>
    <_>
      <rects>
        <_>
          23 27 1 2 -1.</_>
        <_>
          23 28 1 1 2.</_></rects>
      <tilted>0</tilted></_>
    <_>
      <rects>
        <_>
          23 27 3 12 -1.</_>
        <_>
          24 27 1 12 3.</_></rects>
      <tilted>0</tilted></_>
    <_>
      <rects>
        <_>
          23 28 2 12 -1.</_>
        <_>
          23 28 1 6 2.</_>
        <_>
          24 34 1 6 2.</_></rects>
      <tilted>0</tilted></_>
    <_>
      <rects>
        <_>
          23 29 2 3 -1.</_>
        <_>
          24 29 1 3 2.</_></rects>
      <tilted>0</tilted></_>
    <_>
      <rects>
        <_>
          23 29 2 8 -1.</_>
        <_>
          23 29 1 4 2.</_>
        <_>
          24 33 1 4 2.</_></rects>
      <tilted>0</tilted></_>
    <_>
      <rects>
        <_>
          23 32 3 9 -1.</_>
        <_>
          24 32 1 9 3.</_></rects>
      <tilted>0</tilted></_>
    <_>
      <rects>
        <_>
          24 27 9 15 -1.</_>
        <_>
          27 27 3 15 3.</_></rects>
      <tilted>0</tilted></_>
    <_>
      <rects>
        <_>
          24 29 8 8 -1.</_>
        <_>
          24 29 4 4 2.</_>
        <_>
          28 33 4 4 2.</_></rects>
      <tilted>0</tilted></_>
    <_>
      <rects>
        <_>
          25 28 4 3 -1.</_>
        <_>
          27 28 2 3 2.</_></rects>
      <tilted>0</tilted></_>
    <_>
      <rects>
        <_>
          25 36 4 6 -1.</_>
        <_>
          25 38 4 2 3.</_></rects>
      <tilted>0</tilted></_>
    <_>
      <rects>
        <_>
          26 30 9 4 -1.</_>
        <_>
          29 30 3 4 3.</_></rects>
      <tilted>0</tilted></_>
    <_>
      <rects>
        <_>
          27 10 6 34 -1.</_>
        <_>
          30 10 3 34 2.</_></rects>
      <tilted>0</tilted></_>
    <_>
      <rects>
        <_>
          27 28 6 2 -1.</_>
        <_>
          29 28 2 2 3.</_></rects>
      <tilted>0</tilted></_>
    <_>
      <rects>
        <_>
          29 21 16 9 -1.</_>
        <_>
          29 24 16 3 3.</_></rects>
      <tilted>0</tilted></_>
    <_>
      <rects>
        <_>
          30 24 7 6 -1.</_>
        <_>
          30 26 7 2 3.</_></rects>
      <tilted>0</tilted></_>
    <_>
      <rects>
        <_>
          30 34 12 14 -1.</_>
        <_>
          30 34 6 7 2.</_>
        <_>
          36 41 6 7 2.</_></rects>
      <tilted>0</tilted></_>
    <_>
      <rects>
        <_>
          38 19 8 16 -1.</_>
        <_>
          42 19 4 16 2.</_></rects>
      <tilted>0</tilted></_></features></cascade>
</opencv_storage>

